digraph Tree {
node [shape=box, style="filled, rounded", color="black", fontname=helvetica] ;
edge [fontname=helvetica] ;
0 [label="petal length (cm) <= 2.6\ngini = 0.67\nsamples = 96\nvalue = [48, 54, 48]\nclass = versicolor", fillcolor="#f3fdf8"] ;
1 [label="gini = 0.0\nsamples = 31\nvalue = [48, 0, 0]\nclass = setosa", fillcolor="#e58139"] ;
0 -> 1 [labeldistance=2.5, labelangle=45, headlabel="True"] ;
2 [label="petal length (cm) <= 4.85\ngini = 0.5\nsamples = 65\nvalue = [0, 54, 48]\nclass = versicolor", fillcolor="#e9fcf1"] ;
0 -> 2 [labeldistance=2.5, labelangle=-45, headlabel="False"] ;
3 [label="petal width (cm) <= 1.65\ngini = 0.08\nsamples = 31\nvalue = [0, 49, 2]\nclass = versicolor", fillcolor="#41e686"] ;
2 -> 3 ;
4 [label="gini = 0.0\nsamples = 30\nvalue = [0, 49, 0]\nclass = versicolor", fillcolor="#39e581"] ;
3 -> 4 ;
5 [label="gini = 0.0\nsamples = 1\nvalue = [0, 0, 2]\nclass = virginica", fillcolor="#8139e5"] ;
3 -> 5 ;
6 [label="petal width (cm) <= 1.75\ngini = 0.18\nsamples = 34\nvalue = [0, 5, 46]\nclass = virginica", fillcolor="#8f4fe8"] ;
2 -> 6 ;
7 [label="petal length (cm) <= 4.95\ngini = 0.5\nsamples = 8\nvalue = [0, 5, 5]\nclass = versicolor", fillcolor="#ffffff"] ;
6 -> 7 ;
8 [label="gini = 0.0\nsamples = 2\nvalue = [0, 3, 0]\nclass = versicolor", fillcolor="#39e581"] ;
7 -> 8 ;
9 [label="petal length (cm) <= 5.35\ngini = 0.41\nsamples = 6\nvalue = [0, 2, 5]\nclass = virginica", fillcolor="#b388ef"] ;
7 -> 9 ;
10 [label="petal width (cm) <= 1.55\ngini = 0.5\nsamples = 4\nvalue = [0, 2, 2]\nclass = versicolor", fillcolor="#ffffff"] ;
9 -> 10 ;
11 [label="gini = 0.0\nsamples = 2\nvalue = [0, 0, 2]\nclass = virginica", fillcolor="#8139e5"] ;
10 -> 11 ;
12 [label="gini = 0.0\nsamples = 2\nvalue = [0, 2, 0]\nclass = versicolor", fillcolor="#39e581"] ;
10 -> 12 ;
13 [label="gini = 0.0\nsamples = 2\nvalue = [0, 0, 3]\nclass = virginica", fillcolor="#8139e5"] ;
9 -> 13 ;
14 [label="gini = 0.0\nsamples = 26\nvalue = [0, 0, 41]\nclass = virginica", fillcolor="#8139e5"] ;
6 -> 14 ;
}